svm_type c_svc
kernel_type rbf
gamma 0.25
nr_class 2
total_sv 28
rho -0.013297726718934866
label 1 0
nr_sv 14 14
SV
4 1:0.46666667 2:0.44444444 3:0.52941176 4:0.33333333 
4 1:0.46666667 2:0.5 3:0.67647059 4:0.53333333 
4 1:0.4 2:0.33333333 3:0.67647059 4:0.26666667 
4 1:0.4 2:0.55555556 3:0.47058824 4:0.53333333 
4 1:0.46666667 2:0.38888889 3:0.47058824 4:0.53333333 
4 1:0.53333333 2:0.55555556 3:0.55882353 4:0.66666667 
4 1:0.43333333 2:0.44444444 3:0.44117647 4:0.53333333 
4 1:0.46666667 2:0.27777778 3:0.5 4:0.6 
1.2910172225223859 1:1 2:1 3:0.91176471 4:0.66666667 
4 1:0.5 2:0.61111111 3:0.64705882 4:0.53333333 
4 1:0.36666667 2:0.55555556 3:0.44117647 4:0.53333333 
4 1:0.33333333 2:0.55555556 3:0.52941176 4:0.53333333 
3.7657982832639791 1:0.3 2:0.38888889 3:0.52941176 4:0.6 
4 2:0.27777778 3:0.35294118 4:0.46666667 
-4 1:0.33333333 2:0.66666667 3:0.44117647 4:0.53333333 
-4 1:0.63333333 2:0.44444444 3:0.44117647 4:0.26666667 
-4 1:0.43333333 2:0.11111111 3:0.35294118 4:0.33333333 
-4 1:0.46666667 2:0.27777778 3:0.47058824 4:0.33333333 
-4 1:0.36666667 2:0.77777778 3:0.35294118 4:0.4 
-4 1:0.46666667 2:0.72222222 3:0.41176471 4:0.4 
-4 1:0.16666667 2:0.55555556 3:0.35294118 4:0.33333333 
-4 1:0.36666667 2:0.5 3:0.35294118 4:0.33333333 
-4 1:0.6 2:0.55555556 3:0.5 4:0.46666667 
-4 1:0.23333333 2:0.55555556 3:0.35294118 4:0.33333333 
-4 1:0.53333333 2:0.44444444 3:0.38235294 4:0.33333333 
-4 1:0.66666667 2:0.61111111 3:0.47058824 4:0.33333333 
-1.0568155057863655 1:0.6 2:0.61111111 3:0.41176471 4:0.33333333 
-4 1:0.4 2:0.5 3:0.41176471 4:0.26666667 
